digraph {
	0 [label="reviews_from_critics <= 13.5\nmse = 0.517\nsamples = 312\nvalue = 6.515" fillcolor=red style=filled]
	1 [label="reviews_from_critics <= 4.5\nmse = 0.394\nsamples = 235\nvalue = 6.308" fillcolor=red style=filled]
	2 [label="duration <= 81.0\nmse = 0.449\nsamples = 128\nvalue = 6.098" fillcolor="#f6d2b8" style=filled]
	3 [label="reviews_from_critics <= 2.5\nmse = 0.437\nsamples = 72\nvalue = 5.849" fillcolor="#f8dbc7" style=filled]
	4 [label="year <= 1925.5\nmse = 0.463\nsamples = 40\nvalue = 5.642" fillcolor="#f9e3d3" style=filled]
	5 [label="mse = 0.349\nsamples = 20\nvalue = 5.996" fillcolor="#f6d6be" style=filled]
	6 [label="mse = 0.327\nsamples = 20\nvalue = 5.288" fillcolor="#fcf0e8" style=filled]
	7 [label="Musical <= 0.5\nmse = 0.285\nsamples = 32\nvalue = 6.107" fillcolor="#f6d2b8" style=filled]
	8 [label="mse = 0.219\nsamples = 30\nvalue = 6.223" fillcolor="#f5cdb1" style=filled]
	9 [label="mse = 0.0\nsamples = 2\nvalue = 5.3" fillcolor="#fcf0e7" style=filled]
	10 [label="Musical <= 0.5\nmse = 0.297\nsamples = 56\nvalue = 6.4" fillcolor="#f3c7a6" style=filled]
	11 [label="duration <= 178.5\nmse = 0.297\nsamples = 50\nvalue = 6.453" fillcolor="#f3c5a3" style=filled]
	12 [label="mse = 0.293\nsamples = 47\nvalue = 6.416" fillcolor="#f3c6a5" style=filled]
	13 [label="mse = 0.007\nsamples = 3\nvalue = 7.025" fillcolor="#efaf81" style=filled]
	14 [label="Drama <= 0.5\nmse = 0.08\nsamples = 6\nvalue = 5.962" fillcolor="#f7d7c0" style=filled]
	15 [label="mse = 0.036\nsamples = 3\nvalue = 5.8" fillcolor="#f8ddca" style=filled]
	16 [label="mse = 0.036\nsamples = 3\nvalue = 6.233" fillcolor="#f5cdb0" style=filled]
	17 [label="duration <= 102.5\nmse = 0.216\nsamples = 107\nvalue = 6.555" fillcolor=red style=filled]
	18 [label="Mystery <= 0.5\nmse = 0.218\nsamples = 80\nvalue = 6.483" fillcolor=red style=filled]
	19 [label="year <= 1916.0\nmse = 0.198\nsamples = 77\nvalue = 6.513" fillcolor=red style=filled]
	20 [label="mse = 0.056\nsamples = 6\nvalue = 6.029" fillcolor="#f6d5bc" style=filled]
	21 [label="mse = 0.19\nsamples = 71\nvalue = 6.548" fillcolor=red style=filled]
	22 [label="duration <= 89.5\nmse = 0.23\nsamples = 3\nvalue = 5.86" fillcolor="#f8dbc6" style=filled]
	23 [label="mse = 0.0\nsamples = 2\nvalue = 6.1" fillcolor="#f6d2b8" style=filled]
	24 [label="mse = 0.0\nsamples = 1\nvalue = 4.9" fillcolor="#ffffff" style=filled]
	25 [label="year <= 1920.0\nmse = 0.124\nsamples = 27\nvalue = 6.817" fillcolor="#f0b78e" style=filled]
	26 [label="Adventure <= 0.5\nmse = 0.056\nsamples = 6\nvalue = 6.471" fillcolor="#f3c4a2" style=filled]
	27 [label="mse = 0.01\nsamples = 4\nvalue = 6.36" fillcolor="#f4c8a9" style=filled]
	28 [label="mse = 0.062\nsamples = 2\nvalue = 6.75" fillcolor="#f1b992" style=filled]
	29 [label="Music <= 0.5\nmse = 0.097\nsamples = 21\nvalue = 6.922" fillcolor="#efb388" style=filled]
	30 [label="mse = 0.07\nsamples = 20\nvalue = 6.959" fillcolor="#efb285" style=filled]
	31 [label="mse = 0.0\nsamples = 1\nvalue = 6.1" fillcolor="#f6d2b8" style=filled]
	32 [label="reviews_from_critics <= 44.5\nmse = 0.345\nsamples = 77\nvalue = 7.163" fillcolor="#edaa79" style=filled]
	33 [label="year <= 1929.5\nmse = 0.265\nsamples = 56\nvalue = 7.0" fillcolor="#efb083" style=filled]
	34 [label="Thriller <= 0.5\nmse = 0.245\nsamples = 52\nvalue = 7.045" fillcolor="#eeae80" style=filled]
	35 [label="duration <= 163.0\nmse = 0.221\nsamples = 51\nvalue = 7.065" fillcolor="#eeae7f" style=filled]
	36 [label="mse = 0.21\nsamples = 49\nvalue = 7.027" fillcolor="#eeaf81" style=filled]
	37 [label="mse = 0.002\nsamples = 2\nvalue = 7.675" fillcolor="#e9975b" style=filled]
	38 [label="mse = -0.0\nsamples = 1\nvalue = 5.7" fillcolor="#f9e1d0" style=filled]
	39 [label="reviews_from_critics <= 24.0\nmse = 0.138\nsamples = 4\nvalue = 6.38" fillcolor="#f4c7a8" style=filled]
	40 [label="mse = 0.0\nsamples = 1\nvalue = 5.7" fillcolor="#f9e1d0" style=filled]
	41 [label="Mystery <= 0.5\nmse = 0.028\nsamples = 3\nvalue = 6.55" fillcolor="#f2c19d" style=filled]
	42 [label="mse = 0.01\nsamples = 2\nvalue = 6.7" fillcolor="#f1bb95" style=filled]
	43 [label="mse = 0.0\nsamples = 1\nvalue = 6.4" fillcolor="#f3c7a6" style=filled]
	44 [label="Comedy <= 0.5\nmse = 0.243\nsamples = 21\nvalue = 7.687" fillcolor="#e9965a" style=filled]
	45 [label="Music <= 0.5\nmse = 0.221\nsamples = 14\nvalue = 7.487" fillcolor="#eb9e66" style=filled]
	46 [label="duration <= 136.5\nmse = 0.162\nsamples = 13\nvalue = 7.557" fillcolor="#ea9b62" style=filled]
	47 [label="mse = 0.149\nsamples = 8\nvalue = 7.4" fillcolor="#eca16b" style=filled]
	48 [label="mse = 0.062\nsamples = 5\nvalue = 7.84" fillcolor="#e89051" style=filled]
	49 [label="mse = -0.0\nsamples = 1\nvalue = 6.5" fillcolor="#f3c3a0" style=filled]
	50 [label="reviews_from_critics <= 47.5\nmse = 0.067\nsamples = 7\nvalue = 8.062" fillcolor="#e68844" style=filled]
	51 [label="mse = 0.0\nsamples = 1\nvalue = 7.4" fillcolor="#eca16b" style=filled]
	52 [label="duration <= 70.0\nmse = 0.005\nsamples = 6\nvalue = 8.157" fillcolor="#e6843e" style=filled]
	53 [label="mse = 0.002\nsamples = 2\nvalue = 8.25" fillcolor="#e58139" style=filled]
	54 [label="mse = 0.002\nsamples = 4\nvalue = 8.12" fillcolor="#e68641" style=filled]
	0 -> 1
	1 -> 2
	2 -> 3
	3 -> 4
	4 -> 5
	4 -> 6
	3 -> 7
	7 -> 8
	7 -> 9
	2 -> 10
	10 -> 11
	11 -> 12
	11 -> 13
	10 -> 14
	14 -> 15
	14 -> 16
	1 -> 17
	17 -> 18
	18 -> 19
	19 -> 20
	19 -> 21
	18 -> 22
	22 -> 23
	22 -> 24
	17 -> 25
	25 -> 26
	26 -> 27
	26 -> 28
	25 -> 29
	29 -> 30
	29 -> 31
	0 -> 32
	32 -> 33
	33 -> 34
	34 -> 35
	35 -> 36
	35 -> 37
	34 -> 38
	33 -> 39
	39 -> 40
	39 -> 41
	41 -> 42
	41 -> 43
	32 -> 44
	44 -> 45
	45 -> 46
	46 -> 47
	46 -> 48
	45 -> 49
	44 -> 50
	50 -> 51
	50 -> 52
	52 -> 53
	52 -> 54
}
